digraph Tree {
node [shape=box, style="rounded", color="black", fontname=helvetica] ;
graph [ranksep=equally, splines=polyline] ;
edge [fontname=helvetica] ;
0 [label="CountryCode_US <= 0.5\ngini = 0.16\nsamples = 100.0%\nvalue = [0.912, 0.088]"] ;
1 [label="CountryCode_KR <= 0.5\ngini = 0.095\nsamples = 35.9%\nvalue = [0.95, 0.05]"] ;
0 -> 1 [labeldistance=2.5, labelangle=45, headlabel="True"] ;
2 [label="CountryCode_AU <= 0.5\ngini = 0.083\nsamples = 34.9%\nvalue = [0.957, 0.043]"] ;
1 -> 2 ;
3 [label="CountryCode_ES <= 0.5\ngini = 0.073\nsamples = 33.6%\nvalue = [0.962, 0.038]"] ;
2 -> 3 ;
4 [label="gini = 0.061\nsamples = 31.6%\nvalue = [0.969, 0.031]"] ;
3 -> 4 ;
5 [label="gini = 0.24\nsamples = 2.0%\nvalue = [0.861, 0.139]"] ;
3 -> 5 ;
6 [label="AvgUseTime <= 9.083\ngini = 0.298\nsamples = 1.3%\nvalue = [0.818, 0.182]"] ;
2 -> 6 ;
7 [label="gini = 0.219\nsamples = 0.7%\nvalue = [0.875, 0.125]"] ;
6 -> 7 ;
8 [label="gini = 0.375\nsamples = 0.6%\nvalue = [0.75, 0.25]"] ;
6 -> 8 ;
9 [label="gini = 0.413\nsamples = 1.0%\nvalue = [0.708, 0.292]"] ;
1 -> 9 ;
10 [label="AvgUseTime <= 8.789\ngini = 0.194\nsamples = 64.1%\nvalue = [0.891, 0.109]"] ;
0 -> 10 [labeldistance=2.5, labelangle=-45, headlabel="False"] ;
11 [label="AvgUseTime <= 3.657\ngini = 0.139\nsamples = 22.2%\nvalue = [0.925, 0.075]"] ;
10 -> 11 ;
12 [label="AvgUseTime <= 0.314\ngini = 0.076\nsamples = 5.8%\nvalue = [0.96, 0.04]"] ;
11 -> 12 ;
13 [label="gini = 0.255\nsamples = 0.6%\nvalue = [0.85, 0.15]"] ;
12 -> 13 ;
14 [label="gini = 0.052\nsamples = 5.2%\nvalue = [0.973, 0.027]"] ;
12 -> 14 ;
15 [label="AvgUseTime <= 3.982\ngini = 0.16\nsamples = 16.4%\nvalue = [0.912, 0.088]"] ;
11 -> 15 ;
16 [label="gini = 0.338\nsamples = 0.7%\nvalue = [0.784, 0.216]"] ;
15 -> 16 ;
17 [label="gini = 0.151\nsamples = 15.7%\nvalue = [0.918, 0.082]"] ;
15 -> 17 ;
18 [label="Gender_2 <= 0.5\ngini = 0.221\nsamples = 41.9%\nvalue = [0.874, 0.126]"] ;
10 -> 18 ;
19 [label="Formfactor_ITC <= 0.5\ngini = 0.248\nsamples = 30.2%\nvalue = [0.855, 0.145]"] ;
18 -> 19 ;
20 [label="gini = 0.257\nsamples = 28.9%\nvalue = [0.849, 0.151]"] ;
19 -> 20 ;
21 [label="gini = 0.0\nsamples = 1.3%\nvalue = [1.0, 0.0]"] ;
19 -> 21 ;
22 [label="UserExperienceLevel <= 2.5\ngini = 0.144\nsamples = 11.6%\nvalue = [0.922, 0.078]"] ;
18 -> 22 ;
23 [label="gini = 0.127\nsamples = 7.6%\nvalue = [0.932, 0.068]"] ;
22 -> 23 ;
24 [label="gini = 0.175\nsamples = 4.1%\nvalue = [0.903, 0.097]"] ;
22 -> 24 ;
{rank=same ; 0} ;
{rank=same ; 1; 10} ;
{rank=same ; 2; 11; 18} ;
{rank=same ; 3; 6; 12; 15; 19; 22} ;
{rank=same ; 4; 5; 7; 8; 9; 13; 14; 16; 17; 20; 21; 23; 24} ;
}